-0.18624915
0.017866861
-0.78681296
0.10632089
-0.06532824
-0.16463016
0.2585979
-1.0002685
0.3329499
-0.9514695
0.25996307
-0.4267261
-0.08728755
0.0001846301
-0.12817757
-0.599763
-0.42775315
0.07860766
-1.4311863
0.58170843
-0.80743504
0.3277981
-0.8918312
1.2142651
0.49045667
-0.069114275
0.69683206
-0.20795004
-0.8315688
0.8272631
-0.8632197
0.6317885
0.72722244
-0.16562824
0.22639474
-0.01715021
-0.0006376122
0.45505634
0.17660032
0.47867844
-0.32926223
0.0011660024
-0.5447948
-0.039348494
-0.4559575
-0.07737047
0.6009716
-0.12257886
-0.4750516
-0.11442686
-0.21542193
-0.5365671
0.051374577
0.06490329
0.6129781
-0.0349831
-0.15318573
-0.9036112
0.41190797
0.6575001
0.32690167
-0.22288302
-0.75195706
0.19491933
0.41096795
0.78874826
0.037689377
-0.3694675
0.33520707
-0.13684887
-0.4319756
0.6579907
-0.16553144
0.07764021
-0.53801525
0.53706735
0.12053372
0.38631836
-0.04350979
-0.69406676
0.11733311
-0.60992616
0.018228548
-0.61538833
0.109780535
-0.12458017
0.5256043
-0.12737723
-0.21692288
-0.68207926
-0.54377407
0.5212491
0.8569648
1.5138365
-0.0047005364
-0.086540766
2.753
-0.15117776
0.6599295
-0.2892415
-0.045302868
-0.22094156
-0.5506375
0.9405674
-0.035473876
0.0284567
-0.64989156
-0.41994202
0.5451054
-0.6381443
0.031711806
0.0004072735
-0.097677805
-1.4077344
0.44779333
-0.86347497
0.18053076
-0.14838661
-1.4374247
-1.8839979
-0.5020545
-1.0691284
0.65404755
-0.4659371
-0.0009894521
-0.45488906
0.20866817
0.2140465
-0.4629513
0.93032837
-0.602597
-0.1349874
0.5058535
0.14648479
0.13013124
-0.06796477
0.24277328
-0.45128357
-0.30795136
-0.2563972
-0.07816049
-0.4075976
-0.5595329
0.28834945
0.8237247
-0.07963801
-1.0076926
-0.14646521
-0.72818404
0.36333054
0.22169119
0.2854489
0.47795781
0.06465383
-0.062774785
-0.16891003
0.27231628
-0.27181268
-0.13514881
-0.005578977
-0.15735911
0.6027474
0.5318871
-0.21897669
0.18269996
1.340838
1.2171434
-0.530601
-0.85279065
0.2063021
0.5645517
-0.5523394
-0.2043996
-2.0276794
-0.4123532
-0.2586822
0.410034
-0.58200175
0.11447066
-0.58878165
-0.735521
-0.9534339
-0.17715146
-0.14527361
0.23137349
-0.068350926
-0.09203962
-0.7058926
0.11058704
2.009881
-0.4852594
0.1676794
-0.50094104
3.0135462
-0.2476283
-0.12850611
-0.083486564
0.27264008
0.095359646
0.034216814
-0.46120897
0.07446759
-0.06257343
0.5544131
-0.1742754
1.3815212
-0.77158034
0.01884304
-0.30574092
0.43916014
-0.49927315
0.009049378
-0.6449618
0.05446775
0.112889655
-0.41529533
-0.5825025
0.3301412
0.8246146
0.006716994
0.24165273
0.5671101
-0.13142255
-1.3106532
0.14466146
-0.14672202
0.4974784
-0.24620518
-0.17294857
0.8553456
0.08103702
-0.11018655
-0.014542705
-0.0592475
0.46706486
-1.2310007
0.14332092
0.5974109
-0.12071631
0.97971547
0.9852514
0.3626304
-0.24371386
1.8655893
-0.18369377
1.6143001
-0.95290214
-0.6188624
0.22465365
-0.19996217
0.17127231
0.051840726
-0.58704853
-0.44212833
0.005916338
-0.50080544
-0.35431615
-0.6500339
0.87991893
-0.11139974
0.21542947
0.19264476
-0.57759976
-0.26025873
0.15787323
-0.03358648
0.3214748
0.42774647
1.2537694
-0.19253385
-0.2187746
0.06351097
0.7684271
0.762089
0.024109088
-0.11396962
-0.26537728
-0.79287994
-0.3004697
-0.15808389
-1.0712887
0.18939538
0.29512084
0.8674292
1.0393547
-0.38364264
0.36898434
-0.8689797
-0.5660549
0.3003345
2.540121
0.1567469
3.6800704
-0.13240196
-0.36374107
-0.07986589
0.47844753
-0.476474
-0.30464306
-0.38821214
-0.67427367
1.0327418
-0.52783746
3.2124414
-0.48220637
-0.67253804
0.7872946
-0.6287011
-0.24649101
0.5257161
-0.524967
0.1782891
0.03521637
-0.05221054
-0.028015463
0.74890536
0.061880793
0.08581084
-0.74030805
0.19526799
1.2319918
-0.5646559
-0.32932445
1.1343939
0.8058089
1.0887737
0.019257622
-0.5893293
1.343555
-1.0833871
0.19416225
-0.120360196
0.32113394
0.79372543
-0.6178148
-0.19267201
0.40322983
0.36398792
-0.5214628
0.09262397
0.08862198
-0.75898755
-0.24189338
0.093413495
0.5195936
1.622135
-0.27727708
0.10324679
0.015730398
0.1151121
0.2813355
-0.17655186
-0.24787322
-0.083604895
0.41160884
0.0973281
-0.06628586
0.61825746
1.980062
-0.29215014
0.045355525
0.0791966
-0.31855667
-1.0732714
-0.14298832
-0.607555
-0.052843634
0.7606855
0.16023219
0.06993615
-0.23046982
0.67557085
-0.026434978
0.17090648
1.760632
0.054290928
-1.0738324
0.0971515
0.046970982
-0.7540151
-0.31792298
-0.42661706
-0.38008738
-0.00074357144
-1.2723342
0.044478998
-0.9377231
-0.07644358
0.99296004
-1.2097371
-0.11088205
-0.19537689
0.6243058
-0.062349964
-1.1310042
-0.42117405
-0.6308998
0.5092409
0.22008164
-0.94498944
0.90427756
0.6924542
0.5420793
-0.09391438
1.0465018
0.54041976
0.048009224
-0.47054404
1.0190468
-0.44496074
-1.22408
1.5971781
0.22637159
-0.46755424
0.4068386
-0.05880084
-0.07086878
1.5900393
-0.0077812118
-0.19501726
0.18117768
-0.259152
-0.8627794
0.09790331
-0.8215238
-0.19313776
-0.33041897
0.11916174
-0.88659096
0.61839443
-0.67867166
0.5762073
0.020799205
-0.19866699
0.1563927
0.09491475
0.69724905
0.8166298
0.02785368
-0.4309901
-0.42564023
-0.14585055
0.4847031
1.5282882
-0.16920502
0.92240995
0.08046385
-0.6904715
0.6570152
0.7758343
0.7357567
0.6355111
0.3150574
-0.42066935
-1.0604287
-0.07444604
0.23756692
-1.3229756
0.0034277893
-0.024962446
-0.14954793
0.103702314
-0.7774163
-0.055638358
-0.8598285
-0.45490363
-1.2518748
-0.56955713
-0.5236942
-0.2810068
-1.2503924
0.5588803
-0.6981274
-0.28831723
0.08335776
-0.61708784
0.012306335
-1.2423842
0.37483102
-0.11087704
0.27187973
0.7897926
0.48267013
-0.65723276
0.6634229
0.7211204
-0.8383524
-0.43101618
0.088675514
0.4283521
1.7315265
0.6077823
-1.0783186
1.0734371
-0.12701574
0.035814304
-1.0791429
-0.77217203
-0.02284458
-0.26641306
-0.073590256
0.20509003
-0.034312386
0.18541618
0.08282709
-0.16827911
1.3861614
-0.3385584
0.47962567
0.20418032
1.0415328
-0.19194917
